digraph Tree {
node [shape=box] ;
0 [label="X[0] <= 24.5\nmse = 83586.277\nsamples = 10438\nvalue = 35.248"] ;
1 [label="X[0] <= 15.5\nmse = 53914.699\nsamples = 10308\nvalue = 27.484"] ;
0 -> 1 [labeldistance=2.5, labelangle=45, headlabel="True"] ;
2 [label="X[0] <= 0.5\nmse = 2770.245\nsamples = 6772\nvalue = 14.149"] ;
1 -> 2 ;
3 [label="mse = 30210.635\nsamples = 88\nvalue = 101.284"] ;
2 -> 3 ;
4 [label="X[0] <= 11.5\nmse = 2307.695\nsamples = 6684\nvalue = 13.002"] ;
2 -> 4 ;
5 [label="X[0] <= 7.5\nmse = 1772.798\nsamples = 5282\nvalue = 10.956"] ;
4 -> 5 ;
6 [label="X[0] <= 6.5\nmse = 1932.023\nsamples = 4709\nvalue = 11.931"] ;
5 -> 6 ;
7 [label="X[0] <= 4.5\nmse = 1926.444\nsamples = 4703\nvalue = 11.901"] ;
6 -> 7 ;
8 [label="X[0] <= 2.5\nmse = 106.746\nsamples = 50\nvalue = 7.12"] ;
7 -> 8 ;
9 [label="X[0] <= 1.5\nmse = 115.919\nsamples = 43\nvalue = 8.186"] ;
8 -> 9 ;
10 [label="mse = 58.286\nsamples = 7\nvalue = 5.0"] ;
9 -> 10 ;
11 [label="mse = 124.768\nsamples = 36\nvalue = 8.806"] ;
9 -> 11 ;
12 [label="X[0] <= 3.5\nmse = 0.531\nsamples = 7\nvalue = 0.571"] ;
8 -> 12 ;
13 [label="mse = 0.556\nsamples = 6\nvalue = 0.667"] ;
12 -> 13 ;
14 [label="mse = 0.0\nsamples = 1\nvalue = 0.0"] ;
12 -> 14 ;
15 [label="X[0] <= 5.5\nmse = 1945.749\nsamples = 4653\nvalue = 11.952"] ;
7 -> 15 ;
16 [label="mse = 683.948\nsamples = 43\nvalue = 13.349"] ;
15 -> 16 ;
17 [label="mse = 1957.5\nsamples = 4610\nvalue = 11.939"] ;
15 -> 17 ;
18 [label="mse = 5748.917\nsamples = 6\nvalue = 35.5"] ;
6 -> 18 ;
19 [label="X[0] <= 9.5\nmse = 392.266\nsamples = 573\nvalue = 2.944"] ;
5 -> 19 ;
20 [label="X[0] <= 8.5\nmse = 395.303\nsamples = 567\nvalue = 2.896"] ;
19 -> 20 ;
21 [label="mse = 406.546\nsamples = 551\nvalue = 2.973"] ;
20 -> 21 ;
22 [label="mse = 0.938\nsamples = 16\nvalue = 0.25"] ;
20 -> 22 ;
23 [label="X[0] <= 10.5\nmse = 84.25\nsamples = 6\nvalue = 7.5"] ;
19 -> 23 ;
24 [label="mse = 110.889\nsamples = 3\nvalue = 10.667"] ;
23 -> 24 ;
25 [label="mse = 37.556\nsamples = 3\nvalue = 4.333"] ;
23 -> 25 ;
26 [label="X[0] <= 12.5\nmse = 4247.705\nsamples = 1402\nvalue = 20.711"] ;
4 -> 26 ;
27 [label="mse = 6128.224\nsamples = 936\nvalue = 28.489"] ;
26 -> 27 ;
28 [label="X[0] <= 14.5\nmse = 104.921\nsamples = 466\nvalue = 5.088"] ;
26 -> 28 ;
29 [label="X[0] <= 13.5\nmse = 33.533\nsamples = 162\nvalue = 2.901"] ;
28 -> 29 ;
30 [label="mse = 33.846\nsamples = 160\nvalue = 2.938"] ;
29 -> 30 ;
31 [label="mse = 0.0\nsamples = 2\nvalue = 0.0"] ;
29 -> 31 ;
32 [label="mse = 139.058\nsamples = 304\nvalue = 6.253"] ;
28 -> 32 ;
33 [label="X[0] <= 16.5\nmse = 150871.684\nsamples = 3536\nvalue = 53.022"] ;
1 -> 33 ;
34 [label="mse = 1467854.203\nsamples = 317\nvalue = 467.123"] ;
33 -> 34 ;
35 [label="X[0] <= 19.5\nmse = 2628.263\nsamples = 3219\nvalue = 12.243"] ;
33 -> 35 ;
36 [label="X[0] <= 17.5\nmse = 225.001\nsamples = 887\nvalue = 7.67"] ;
35 -> 36 ;
37 [label="mse = 2.56\nsamples = 5\nvalue = 0.8"] ;
36 -> 37 ;
38 [label="X[0] <= 18.5\nmse = 225.993\nsamples = 882\nvalue = 7.709"] ;
36 -> 38 ;
39 [label="mse = 228.265\nsamples = 872\nvalue = 7.764"] ;
38 -> 39 ;
40 [label="mse = 4.49\nsamples = 10\nvalue = 2.9"] ;
38 -> 40 ;
41 [label="X[0] <= 21.5\nmse = 3531.389\nsamples = 2332\nvalue = 13.982"] ;
35 -> 41 ;
42 [label="X[0] <= 20.5\nmse = 95680.52\nsamples = 46\nvalue = 130.957"] ;
41 -> 42 ;
43 [label="mse = 5239.817\nsamples = 38\nvalue = 83.158"] ;
42 -> 43 ;
44 [label="mse = 462872.75\nsamples = 8\nvalue = 358.0"] ;
42 -> 44 ;
45 [label="X[0] <= 22.5\nmse = 1396.242\nsamples = 2286\nvalue = 11.628"] ;
41 -> 45 ;
46 [label="mse = 1406.92\nsamples = 2267\nvalue = 11.719"] ;
45 -> 46 ;
47 [label="X[0] <= 23.5\nmse = 3.745\nsamples = 19\nvalue = 0.789"] ;
45 -> 47 ;
48 [label="mse = 1.172\nsamples = 13\nvalue = 0.462"] ;
47 -> 48 ;
49 [label="mse = 8.583\nsamples = 6\nvalue = 1.5"] ;
47 -> 49 ;
50 [label="X[0] <= 25.5\nmse = 2052573.622\nsamples = 130\nvalue = 650.846"] ;
0 -> 50 [labeldistance=2.5, labelangle=-45, headlabel="False"] ;
51 [label="mse = 2485674.579\nsamples = 27\nvalue = 3071.296"] ;
50 -> 51 ;
52 [label="mse = 724.657\nsamples = 103\nvalue = 16.359"] ;
50 -> 52 ;
}